MTP
version = 1.1.0
potential_name = MTP1m
scaling = 7.702546296296303e-01
species_count = 5
potential_tag = 
radial_basis_type = RBChebyshev
	min_dist = 1.492520000000000e+00
	max_dist = 5.000000000000000e+00
	radial_basis_size = 8
	radial_funcs_count = 2
	radial_coeffs
		0-0
			{8.760343837437349e-03, 1.849338242303753e-01, 2.803369857537645e-02, 1.464095012962665e-01, 1.774310072431394e-02, 7.677047176354258e-02, 1.074714518176507e-02, 1.883953965872519e-02}
			{7.647100363037043e-03, -6.703562294443187e-02, 9.160464791558772e-03, -5.505709235755626e-02, 2.944559517439788e-03, -2.751219569684688e-02, -1.595363621737813e-03, -6.486706052682392e-03}
		0-1
			{-1.590205308184460e-02, -3.621995334662340e-02, -2.666580545926383e-02, -9.095405010599506e-03, -1.170188083958146e-02, 4.865927255098062e-03, -4.170769397952805e-03, -2.285877357635403e-03}
			{-1.970182622258427e-02, 9.002650793628234e-02, -6.336853083652989e-03, 7.813357941155963e-02, 1.313135888504689e-02, 4.404115014729837e-02, 9.709950421156521e-03, 1.448087323466157e-02}
		0-2
			{-5.127289723250463e-02, 7.588349874457305e-02, -5.342562046172780e-02, 9.475127121860467e-02, -1.517014107621323e-03, 6.882962883880028e-02, 9.603484762111147e-03, 1.849756877270359e-02}
			{-2.641058320028112e-02, -4.276197355818371e-02, -3.443347078108792e-02, -3.992660277431881e-02, -2.060917935093707e-02, -3.246566074495225e-02, -5.021134952786637e-03, -7.610931986044950e-03}
		0-3
			{-2.876888229316346e-02, -5.239788719556019e-02, -5.420937151055033e-02, -3.251604250623670e-02, -3.333392742844102e-02, -1.538446578356711e-02, -1.167315439921907e-02, -5.691018873765957e-03}
			{-7.957357058586360e-02, -2.501300246874611e-02, -1.128100626286734e-01, -9.400910192205573e-03, -3.635304325908300e-02, 8.719222241352324e-03, -5.020852867185459e-04, 7.309500687359648e-03}
		0-4
			{5.415906434401895e-02, 1.082438480733402e-01, 9.078251054275445e-02, 8.903827736353062e-02, 5.107347629142500e-02, 5.018521806854205e-02, 1.309788104137216e-02, 1.102511698149223e-02}
			{-5.087039001147876e-02, -3.666560233579361e-02, -7.317118707139177e-02, -3.338187893063076e-02, -3.487106092983337e-02, -1.669695212089312e-02, -3.262637933632074e-03, -3.994769466158706e-03}
		1-0
			{-5.558243177261398e-04, -5.956676591444496e-02, -1.342269227423266e-02, -3.795200869894100e-02, -1.410242890889109e-02, -1.876710899105529e-02, -6.717352098652907e-03, -4.846276588628504e-03}
			{5.015621363416069e-02, 4.203976988163391e-03, 6.399441854101935e-02, -4.643944568393362e-02, 1.320711585696298e-02, -3.932024152101584e-02, -1.471605862147427e-03, -1.439749222706589e-02}
		1-1
			{-2.338060883710574e-03, -3.598584732518015e-02, -1.262497934283953e-02, -1.741126896755867e-02, -9.599743071116808e-03, -6.308409837758812e-03, -4.291052090904779e-03, -1.496451242197980e-03}
			{1.170860025079451e-02, 7.564745431830287e-02, 2.877113973244065e-02, 3.453765224674458e-02, 1.500535676573998e-02, 1.259911274769836e-02, 5.760603162984556e-03, 2.000036031029086e-03}
		1-2
			{5.707098308740343e-02, 1.120374088114132e-01, 8.835599389108587e-02, 9.002283829471747e-02, 4.525783366600530e-02, 4.150781015096840e-02, 9.616753400128668e-03, 9.103730201013299e-03}
			{-3.270902288912619e-02, -7.720818014960296e-02, -2.998857449579569e-02, -6.689047001509810e-02, -2.310013556374470e-02, -5.319615059138513e-02, -2.038445407517116e-02, -1.992148470457010e-02}
		1-3
			{6.732326632292198e-03, 1.387621005879680e-02, -2.743545723337783e-03, 1.294234162228728e-02, -6.807481805948159e-03, 3.062176338991717e-03, -6.769706180915777e-03, -1.089855504423698e-03}
			{-8.424842177028864e-02, -1.018773126954349e-01, -1.169103934597352e-01, -7.963534202089670e-02, -6.267955604307811e-02, -5.978974065792670e-02, -3.344194200692284e-02, -2.444608799855192e-02}
		1-4
			{-2.093453722526366e-02, -9.058736465753328e-02, -2.782426015427361e-02, -4.274126966823095e-02, -1.098197031743985e-02, -1.070471501211162e-02, 2.011374128301302e-04, 5.683027228622540e-04}
			{3.983513536136774e-02, 1.752915269184360e-02, 8.773328764351737e-02, 2.188235016552906e-02, 5.097362607335358e-02, 1.750934181082503e-02, 1.654117116597829e-02, 4.171142468220340e-03}
		2-0
			{-2.479747352237369e-02, -1.962819993803411e-02, -2.321217294325840e-02, -4.112848820761929e-03, -1.116438233122638e-03, 8.870007942119028e-03, 6.547000243402493e-03, -1.365103763198744e-03}
			{5.173830943290596e-02, 2.005075676497500e-02, 6.995369115383693e-02, 7.589205189332051e-03, 2.720441412610312e-02, 8.375754205239519e-03, 1.170979535815100e-03, 2.449523381874157e-03}
		2-1
			{1.739744666318079e-02, 1.179676231594982e-01, 1.940614091969982e-02, 7.281416912964478e-02, -1.347268808916111e-04, 3.240440071529143e-02, -6.134847005274130e-03, -1.090888074001561e-04}
			{-2.082094338964748e-02, -3.696617620338352e-02, -3.573598255388984e-02, -2.398993545306950e-02, -1.183637746986842e-02, 1.402553990441616e-03, 6.124498441339399e-03, 6.223029872846198e-03}
		2-2
			{3.360099461386513e-02, 1.136940960466915e-01, 6.300862914513988e-02, 7.466422948172115e-02, 3.756746311586728e-02, 3.276546584306074e-02, 8.587707332069355e-03, -2.095133179571214e-05}
			{-1.214978757754397e-02, -2.543558881851280e-02, -1.763097188369874e-02, -1.223189218369641e-02, -8.936905971098461e-03, -2.075694383294350e-03, -1.870931631556055e-03, 2.316659088652730e-03}
		2-3
			{-4.981460746746152e-03, -1.609299658505474e-01, 5.538659410893569e-04, -1.218819327291113e-01, -7.502796838954252e-04, -6.001002072937758e-02, 3.076003277794062e-03, -2.262957875480671e-02}
			{5.226880850458341e-02, 2.202981389388448e-01, 9.035125579410111e-02, 1.651503738981221e-01, 5.373606275335145e-02, 9.310257163437613e-02, 2.179750100438036e-02, 2.910702852601868e-02}
		2-4
			{-1.334677879288704e-02, 3.271778310409859e-02, -1.467209824172904e-02, 2.549417930462150e-02, -7.121741392546736e-03, 1.254191393836722e-02, -6.553278556403988e-03, -3.794966929595515e-03}
			{-1.499192521596050e-02, -2.933976765541609e-02, -1.533626875161370e-02, -1.171356849301802e-02, -5.141074204730242e-03, 2.182455209125973e-03, 3.357630795626178e-03, 5.494561909722351e-03}
		3-0
			{6.290908014058974e-02, 6.582791699428016e-02, 8.631584987053982e-02, 4.200254020578139e-02, 3.367463324182098e-02, 1.666928176073945e-02, 5.025490357603485e-03, 1.281297761725683e-03}
			{7.325574405305099e-02, 8.355549696371206e-02, 1.329514546018334e-01, 3.801392171405908e-02, 5.057536190951998e-02, -8.107599603559220e-04, 7.064903239627327e-03, -6.601713396821161e-03}
		3-1
			{2.111738760399405e-02, -1.015970623873047e-03, 1.788566741422421e-02, -3.509139638085574e-03, 7.492263347113756e-04, 4.710861040653059e-03, 1.242435485334596e-03, 3.736305958374197e-03}
			{5.527295374521994e-02, 1.644101356120735e-01, 1.159969617449268e-01, 1.149060759584379e-01, 7.720812231183322e-02, 7.155052564591272e-02, 4.316295247137422e-02, 2.384257787810088e-02}
		3-2
			{-3.762249720369402e-03, -3.441506774263899e-02, -1.615475825127755e-02, -2.171987881225463e-02, -1.044767322525463e-02, -1.127983796461004e-02, -6.070118168810181e-03, -5.473670815982659e-03}
			{-7.172634342529238e-02, -3.058839726108539e-01, -1.193809023204084e-01, -2.432900337624800e-01, -7.718502108668679e-02, -1.406943712112498e-01, -3.592597472200468e-02, -4.081341001424547e-02}
		3-3
			{1.886045851114287e-02, 2.935686579354951e-03, 1.345291038027229e-02, -2.669445520126680e-03, -3.208846691419286e-03, -3.455858411629017e-03, -4.977871825779108e-03, -2.201764273993316e-03}
			{-3.593307140071084e-02, -6.233329968421941e-03, -2.981202548847959e-02, 8.887429118838537e-04, -2.508520831935633e-03, 4.315320126868002e-03, 5.522992457913575e-03, 1.196531272109595e-03}
		3-4
			{-9.361856414062744e-03, 5.687076865299048e-03, -2.025895700415020e-02, 1.375356211736365e-02, -9.797133145906755e-03, 1.203404933041227e-02, -4.118871886081382e-03, 3.435309446640563e-03}
			{7.650049695031218e-02, -3.968058720181481e-01, 1.437025455637870e-01, -2.570595265417474e-01, 7.572314684969259e-02, -9.811357457628406e-02, 1.939274441154919e-02, -2.112117665992762e-02}
		4-0
			{-1.525222861271186e-02, 7.740902971082457e-02, -3.063541927092986e-02, 3.666863302171700e-02, -1.560606235788773e-02, 8.051153266137248e-03, -1.140278321344636e-03, 2.194251289707140e-03}
			{2.577385176696586e-02, 1.006726220559294e-01, 2.912464543151361e-02, 6.497844714923610e-02, 5.078600900871813e-03, 2.648745710313403e-02, -6.320668127485316e-03, 8.003222751671637e-03}
		4-1
			{4.267162079603689e-02, -1.514215306812618e-01, 5.730636123144884e-02, -1.234005993272083e-01, 2.104915752809626e-02, -6.313268165504636e-02, 6.316038020015474e-03, -1.382227293492205e-02}
			{3.659249996374929e-02, -1.376992128936320e-02, 2.539719011687228e-02, -5.025062477748647e-02, -6.751444937540517e-03, -3.780248367490223e-02, -9.009021674724813e-03, -1.152731905927068e-02}
		4-2
			{-2.366580333022781e-02, -3.362593650583464e-01, -5.099896378863313e-02, -2.625524926563485e-01, -3.933887157631565e-02, -1.379942563842333e-01, -1.392743393237813e-02, -3.621681601830525e-02}
			{2.969571489327312e-02, -2.047522178735553e-01, 2.869801493391724e-02, -1.682356284220856e-01, 1.819201908488901e-03, -9.283830229695564e-02, -8.931351983275845e-03, -2.903600105701853e-02}
		4-3
			{1.507420888417815e-01, -4.137960025768216e-01, 2.263483374617632e-01, -3.068355801327583e-01, 9.603717069158230e-02, -1.511531774854787e-01, 1.631471684833813e-02, -3.918311600177136e-02}
			{3.259990775683393e-02, 1.373173931394893e-01, 3.335088401952898e-02, 5.802115070507120e-02, -3.648829561926329e-03, 4.073312458774519e-03, -4.840101170824136e-03, -2.003854772898360e-03}
		4-4
			{8.158169052144230e-03, -1.640550346304268e-01, -7.610173556574753e-03, -1.372875507171180e-01, -1.244337810363702e-02, -7.014390587854136e-02, -6.399707208664446e-03, -1.698148418972013e-02}
			{6.777924138661812e-03, -1.107260568735707e-01, 2.190811745523580e-03, -8.421719277712122e-02, -3.288869465517896e-03, -3.819514376597460e-02, -2.719752292490116e-03, -8.615399219331516e-03}
alpha_moments_count = 18
alpha_index_basic_count = 11
alpha_index_basic = {{0, 0, 0, 0}, {0, 1, 0, 0}, {0, 0, 1, 0}, {0, 0, 0, 1}, {0, 2, 0, 0}, {0, 1, 1, 0}, {0, 1, 0, 1}, {0, 0, 2, 0}, {0, 0, 1, 1}, {0, 0, 0, 2}, {1, 0, 0, 0}}
alpha_index_times_count = 14
alpha_index_times = {{0, 0, 1, 11}, {1, 1, 1, 12}, {2, 2, 1, 12}, {3, 3, 1, 12}, {4, 4, 1, 13}, {5, 5, 2, 13}, {6, 6, 2, 13}, {7, 7, 1, 13}, {8, 8, 2, 13}, {9, 9, 1, 13}, {0, 10, 1, 14}, {0, 11, 1, 15}, {0, 12, 1, 16}, {0, 15, 1, 17}}
alpha_scalar_moments = 9
alpha_moment_mapping = {0, 10, 11, 12, 13, 14, 15, 16, 17}
species_coeffs = {-8.442460277073948e+00, -1.749787123207461e+01, -9.845862430699784e+00, 8.693958352084369e+00, -1.525681501222393e+00}
moment_coeffs = {-1.812837296376452e-01, 6.321958580120205e+00, -7.626266383923740e+00, 2.384525361980876e+00, 1.289133477520769e+01, -5.511809677663139e+00, 2.347827871395986e+00, 1.403177314581013e+01, 5.449546124019871e+00}