MTP
version = 1.1.0
potential_name = MTP1m
scaling = 8.543407600308651e-01
species_count = 5
potential_tag = 
radial_basis_type = RBChebyshev
	min_dist = 1.492520000000000e+00
	max_dist = 5.000000000000000e+00
	radial_basis_size = 8
	radial_funcs_count = 2
	radial_coeffs
		0-0
			{5.363651227850027e-02, 5.244165619959617e-02, 8.505630772436178e-02, 5.630645552236993e-02, 4.505596897862493e-02, 2.894238947369552e-02, 1.393520148886404e-02, 6.420446361517815e-03}
			{-4.155542479581528e-02, -3.431823394934264e-02, -6.299240940854521e-02, -3.876562282750902e-02, -3.237540244776568e-02, -1.856942101719039e-02, -1.072115576598412e-02, -3.792636469050709e-03}
		0-1
			{-6.180248013135044e-02, -2.135118996362804e-01, -1.092963321176008e-01, -1.254390537086848e-01, -7.072921810686100e-02, -5.633035785140775e-02, -2.361727246098190e-02, -1.020963782762199e-02}
			{7.653381350957738e-03, 1.210678082430088e-01, 3.137559221472386e-02, 6.688967661583865e-02, 2.010780073636469e-02, 2.373785082373291e-02, 6.432822462888957e-03, 6.665935429094980e-03}
		0-2
			{3.789505960994782e-02, -1.121111390239754e-03, 6.400365919661703e-02, 2.416238433266842e-02, 3.896310908886671e-02, 1.850579904903469e-02, 1.197568333360485e-02, 4.859449915353914e-03}
			{1.783267986558512e-02, -2.907683646263140e-03, 2.587312979911568e-02, -1.883514230755081e-02, 5.757101980736356e-03, -5.667791151604593e-03, 1.809762470128040e-03, 2.245497579529843e-03}
		0-3
			{2.348034282379141e-02, -1.681241692087830e-02, 2.597071227404820e-02, 1.573303555280051e-03, -5.550732534631254e-03, -2.998734659189636e-03, -3.045004091016549e-03, 1.811195444802057e-03}
			{-6.094670032493778e-02, 4.105709143081348e-02, -9.031254565510405e-02, 6.914197959984333e-03, -4.438681659606917e-02, 5.261306379592465e-03, -9.552889780457008e-03, 5.514992140237308e-03}
		0-4
			{5.640996004123150e-02, 2.042989992116749e-01, 7.903694598280241e-02, 1.391577101318544e-01, 3.766542324536079e-02, 6.311894796451703e-02, 6.545599918133057e-03, 1.181344902482767e-02}
			{-8.273784984073702e-04, -3.419927451430377e-01, -4.694708592996079e-03, -2.531618419099029e-01, -1.703431447113615e-02, -1.234417969479563e-01, -1.161162128980945e-02, -2.959834135196263e-02}
		1-0
			{2.992070127050961e-02, 6.235558132817424e-02, 4.590443325507072e-02, 7.239730356151802e-02, 3.345891710461715e-02, 4.494239135647365e-02, 1.135608810735118e-02, 1.119955758570456e-02}
			{1.433769436512160e-02, 4.523560056980426e-02, 2.858937868979038e-02, 7.356905152449553e-03, 1.875394148631825e-02, 5.206946060006479e-05, 6.123324863715148e-03, -4.725774875463825e-03}
		1-1
			{-1.689579726862248e-03, -6.811012580865361e-02, -1.035261038641696e-02, -2.066273633977043e-02, -1.103794210133381e-02, -1.018105958264850e-02, -8.940913874371282e-03, -3.540847924441044e-03}
			{-6.005324485700173e-03, 7.847672888814879e-02, 5.318863247545348e-03, 3.094984976991746e-02, 1.031476846602240e-02, 1.348949809367293e-02, 7.952615156010938e-03, 3.072262369932510e-03}
		1-2
			{-1.137420000663869e-02, -3.151049550398163e-02, -1.911580248461813e-02, 8.583375538249007e-03, -6.083803337778916e-03, 1.090742989601608e-02, -3.943795788369822e-03, 3.801040369300323e-03}
			{-1.382964334102406e-02, -9.021372227697760e-02, -2.081071077660621e-02, -8.187373469650605e-02, -1.445739258785731e-02, -3.596236532881196e-02, -3.647227913762388e-03, -8.375000164390536e-03}
		1-3
			{1.047539178006311e-02, -3.372626667681076e-02, 6.991432105852073e-03, -4.995790626163021e-03, -1.583875090910769e-02, -8.000624558026725e-03, -1.105658139967600e-02, 6.213849812307916e-04}
			{4.309731646621348e-02, 1.430733231863858e-01, 7.880920049173819e-02, 7.092637481854536e-02, 4.632223228741263e-02, 3.326670131279457e-02, 1.884571195573112e-02, 1.056936636206554e-02}
		1-4
			{-3.132376501744744e-03, -1.433913998536448e-02, -1.314536433955108e-02, -2.617587286166186e-03, -5.413983799891302e-03, -3.096352424597743e-03, -5.534280771251079e-03, -4.837274904424968e-03}
			{-1.557761970793656e-02, -7.513500061928848e-02, -2.947078052182420e-02, -7.758317975175845e-02, -1.599905904276528e-02, -4.393369722503242e-02, -7.533692953434594e-03, -1.599386497691586e-02}
		2-0
			{4.708450484537344e-02, 4.956089450369270e-03, 7.052649190750951e-02, 1.581508000275599e-02, 3.421068665494638e-02, 6.148549577794809e-03, 4.453364870200610e-03, -1.799440264501919e-03}
			{-9.304108495596049e-02, 3.259587545334793e-04, -1.364563812905774e-01, -1.023349758967190e-02, -6.589777533991878e-02, -8.070344015226672e-03, -1.552277413219438e-02, -1.896847566399348e-03}
		2-1
			{3.634151304158095e-02, -1.323000557259043e-02, 4.778663821391776e-02, 2.848493891232131e-03, 1.912661061655974e-02, 1.303237904552798e-03, 3.393589378318649e-03, -1.901482273854658e-03}
			{-3.288112813461254e-03, 1.479464294919190e-01, 1.647673989242257e-02, 9.127225270511022e-02, 1.660255941758364e-02, 3.758575328927325e-02, 7.627250955433163e-03, 1.036112840243589e-02}
		2-2
			{5.525520560314669e-02, 1.148023352549782e-01, 7.866704283701177e-02, 8.584637092878794e-02, 3.294971387618044e-02, 3.894158337994132e-02, 5.336545195572937e-03, 8.081466923454518e-03}
			{-5.427797295841612e-02, -1.240519482238064e-01, -7.119035880458474e-02, -8.466558246309351e-02, -2.703909263322253e-02, -3.449015895609544e-02, -3.703795913044974e-03, -6.722644806643750e-03}
		2-3
			{1.023265065014800e-01, 1.159387051210518e-01, 1.554079679874244e-01, 9.468526779790426e-02, 7.272403313867010e-02, 4.394962265990567e-02, 2.303262173450233e-02, 1.126564802170305e-02}
			{-9.969433699536599e-02, 3.500419483117469e-01, -1.363699925992149e-01, 2.457212386298695e-01, -6.688843836490656e-02, 1.168382323498075e-01, -1.668373201172854e-02, 3.758922927189114e-02}
		2-4
			{1.082073828932530e-01, 2.707154694755229e-02, 1.660550448961881e-01, 1.310855514176197e-02, 6.879157472774591e-02, -3.358820207039408e-03, 1.329810935609655e-02, -2.841097425817189e-03}
			{-5.210716998648655e-02, -9.129064996420150e-02, -8.215288084673253e-02, -7.172767252064353e-02, -5.411268514401791e-02, -4.173890400257710e-02, -2.012674308591273e-02, -8.039095958793490e-03}
		3-0
			{3.875934773841946e-02, 1.600258394233312e-02, 5.568044067025919e-02, 3.542891730304296e-02, 3.640267616349107e-02, 2.598775427236256e-02, 1.024563527622104e-02, 5.249520040582404e-03}
			{-1.261267849009415e-02, -6.124004826877674e-03, 4.460492325566551e-03, -1.726013832243291e-02, 1.168165069965657e-02, -1.710368225533549e-02, 2.238386546440346e-03, -1.002520208215020e-02}
		3-1
			{-1.451485979609644e-02, -9.513352922073007e-02, -3.184377508603339e-02, -4.245983582113044e-02, -1.490718952223472e-02, -1.010020935703024e-02, -2.674132673156028e-03, -2.226407199092635e-03}
			{-5.352571218567598e-02, 2.146680205285051e-02, -5.713391482576533e-02, 6.222405812120803e-03, -1.407197335767051e-02, -3.419269540808621e-03, -4.372270249029173e-03, -7.683643195172517e-03}
		3-2
			{-1.096863165754641e-02, -2.043290770673454e-01, -2.677628568007591e-02, -1.299942094719878e-01, -8.999198666411959e-03, -5.579181206136547e-02, -6.345485289989704e-03, -1.740759269063616e-02}
			{1.957238269354824e-02, -1.932094380214860e-01, 3.405933179355865e-02, -1.590583520542175e-01, 1.729384934511130e-02, -7.963976188279609e-02, 3.561420116420505e-03, -2.478574923123253e-02}
		3-3
			{-2.100956861923791e-02, -9.900263378723606e-02, -4.736303346426166e-02, -5.296219551648838e-02, -3.548418847747235e-02, -2.418723036096591e-02, -1.526327399010730e-02, -4.980830780489790e-03}
			{1.242041402814418e-02, 1.139781988302323e-01, 4.604298639340926e-02, 6.555343390773322e-02, 3.753321660535793e-02, 3.035009802568361e-02, 1.712043627068554e-02, 5.214976837766756e-03}
		3-4
			{1.763124535785761e-01, -3.220604346136036e-01, 2.744798180288884e-01, -2.111144759145021e-01, 1.325367653050945e-01, -9.530863392359135e-02, 2.558776523018001e-02, -2.614588121415644e-02}
			{-3.572459013136730e-03, -1.890015239293834e-01, 3.682041874544140e-03, -1.548228010691183e-01, -4.085555343331342e-03, -8.889465211642970e-02, -3.629158809207875e-03, -3.083627392260570e-02}
		4-0
			{7.814694952069066e-03, -2.072773435777552e-02, 3.991628183872901e-03, 7.136714175266731e-03, 2.777530383995053e-03, 7.403381733038734e-03, 5.624117176692982e-04, 5.432242698400497e-03}
			{-3.838255822788871e-02, 1.710707770185680e-01, -2.967998294466543e-02, 1.187881781435476e-01, -1.604423640182213e-03, 6.491367381865264e-02, 9.354606430897215e-03, 1.538874294022930e-02}
		4-1
			{4.838886943341221e-02, 6.763197954055643e-02, 7.170375367223793e-02, 7.323199568890811e-02, 3.543480288473792e-02, 3.995213155064331e-02, 1.000679836033348e-02, 1.434976989340920e-02}
			{-2.296394710267677e-02, -8.496345525143445e-03, -1.173361285297355e-02, -1.420946020410486e-02, -8.502940106797783e-03, 5.933902795421027e-04, 2.865319700424843e-03, 4.358362112360283e-03}
		4-2
			{9.111620528454789e-03, -6.891906751937898e-02, 7.988603731655435e-03, -2.849309773706626e-02, 1.390829239842686e-02, -1.162331780360690e-03, 6.430577736489002e-03, 1.264961096716803e-03}
			{-3.980246397859242e-02, 8.880743935879207e-02, -4.038878687515684e-02, 6.468557659026286e-02, -4.400221487035225e-03, 4.217743903821219e-02, 5.857832410790147e-03, 8.963935980948211e-03}
		4-3
			{-1.186478827097766e-01, 2.842541515592524e-01, -2.093734833927230e-01, 2.143202617180704e-01, -1.024029382234665e-01, 1.045946508053711e-01, -2.361598917330132e-02, 3.111111789847923e-02}
			{-1.350406204102034e-02, 2.045775494832629e-01, 1.024406591776312e-02, 1.374393560587169e-01, 1.050466463561855e-02, 7.727106498972110e-02, 1.058728825172505e-02, 2.517199769057735e-02}
		4-4
			{5.113755873931781e-02, -1.002247406034240e-02, 7.865749802659568e-02, -2.765428731199400e-03, 3.421849379235357e-02, -3.968002400330178e-03, 8.307043333632920e-03, -6.117629444517842e-04}
			{-5.197769654490040e-02, -2.460538481645157e-02, -7.688361047071690e-02, -1.549382848161313e-02, -3.213991778077095e-02, 1.294788047045108e-03, -7.823864480445988e-03, 5.620535104817125e-04}
alpha_moments_count = 18
alpha_index_basic_count = 11
alpha_index_basic = {{0, 0, 0, 0}, {0, 1, 0, 0}, {0, 0, 1, 0}, {0, 0, 0, 1}, {0, 2, 0, 0}, {0, 1, 1, 0}, {0, 1, 0, 1}, {0, 0, 2, 0}, {0, 0, 1, 1}, {0, 0, 0, 2}, {1, 0, 0, 0}}
alpha_index_times_count = 14
alpha_index_times = {{0, 0, 1, 11}, {1, 1, 1, 12}, {2, 2, 1, 12}, {3, 3, 1, 12}, {4, 4, 1, 13}, {5, 5, 2, 13}, {6, 6, 2, 13}, {7, 7, 1, 13}, {8, 8, 2, 13}, {9, 9, 1, 13}, {0, 10, 1, 14}, {0, 11, 1, 15}, {0, 12, 1, 16}, {0, 15, 1, 17}}
alpha_scalar_moments = 9
alpha_moment_mapping = {0, 10, 11, 12, 13, 14, 15, 16, 17}
species_coeffs = {1.024062636070736e+01, -1.773144897009603e+01, -7.902892248318038e+00, 1.042788540861282e+01, -1.348971788930333e+01}
moment_coeffs = {-2.483440028194951e+00, 7.204292791740410e+00, 8.280822525803321e+00, 4.517757326728614e-01, 5.100084631959610e+00, -3.648206803359592e+00, -9.676983146394573e+00, 4.395518392266213e-01, 3.022123292308493e+00}