MTP
version = 1.1.0
potential_name = MTP1m
scaling = 8.333333333333340e-01
species_count = 5
potential_tag = 
radial_basis_type = RBChebyshev
	min_dist = 1.492520000000000e+00
	max_dist = 5.000000000000000e+00
	radial_basis_size = 10
	radial_funcs_count = 2
	radial_coeffs
		0-0
			{5.214064709356018e-02, -1.144409449382352e-01, 9.062840510237129e-02, -8.902556100857734e-02, 4.782116517706742e-02, -5.743268245544347e-02, 1.805122294219146e-02, -3.128569233821906e-02, 6.581386443415927e-04, -1.005769369635967e-02}
			{-5.601152151330436e-04, -7.612617952685602e-03, -2.614924821061321e-03, -7.772396267108339e-03, -3.616921635336798e-03, -7.367701112372391e-03, -1.755385170340741e-03, -5.493021102857758e-03, -1.213152603609397e-03, -2.007623199453243e-03}
		0-1
			{-2.869330694279872e-02, -8.292859053360177e-02, -5.170130666760120e-02, -5.611187901467871e-02, -3.498611025204185e-02, -2.433104704934150e-02, -1.405370394997568e-02, -9.898545091080088e-03, -3.230148527237963e-03, -1.408662523428847e-03}
			{-1.392086312857063e-03, -1.632552779404273e-02, -7.033874860913988e-03, -1.331710029221279e-02, -8.351088755489020e-03, -7.249619801447102e-03, -4.671258497692391e-03, -2.973622158887509e-03, -1.098751309430769e-03, -2.154855676339752e-04}
		0-2
			{1.328499393606456e-01, -2.930158152953012e-01, 2.455936046703842e-01, -2.048990203654724e-01, 1.644904061153980e-01, -1.118669502750429e-01, 7.256781762662470e-02, -4.838460109603115e-02, 1.426008508746754e-02, -1.317273332396688e-02}
			{3.425498734340372e-02, -6.633157622164657e-02, 6.068517702656060e-02, -4.641394259545598e-02, 3.960135784054498e-02, -2.472972549644948e-02, 1.693884433737697e-02, -1.011921947729423e-02, 3.414896069274671e-03, -2.453289872260802e-03}
		0-3
			{2.015904299163677e-02, 2.827965847108916e-02, 3.731827543805454e-02, 3.462275913352630e-02, 2.311359386838761e-02, 2.130752361158385e-02, 9.822816793567550e-03, 8.257208947115397e-03, 3.231933775531135e-03, 1.860757204657469e-03}
			{-4.851538225836244e-04, 4.094256000092329e-03, -1.090866479076603e-03, 7.825444262859256e-03, -1.115081132800692e-03, 5.973937523563890e-03, -3.568249917692327e-04, 2.979282261028910e-03, 2.868579799699407e-04, 8.903579568655481e-04}
		0-4
			{8.854413027431711e-02, 8.462666444684731e-02, 1.496012045278593e-01, 6.150876992871102e-02, 8.885527429840807e-02, 3.348258371420666e-02, 3.899367117199712e-02, 1.205962035348480e-02, 1.027292527705101e-02, 2.714225142419694e-03}
			{9.801310111268296e-03, 1.951773385292577e-02, 1.838790327830950e-02, 1.739051839146197e-02, 1.371892860184627e-02, 1.042312092163931e-02, 6.626447974368435e-03, 3.305126820689232e-03, 1.808529519360926e-03, 5.985883051975831e-04}
		1-0
			{-1.179185906406598e-03, -5.811700913078643e-03, -5.488436907491535e-03, -3.329999370415729e-03, -7.889097062901630e-03, -3.074960426175262e-03, -4.441881997099091e-03, -9.809873290610664e-04, 1.263630984869753e-06, 1.115452473224339e-05}
			{-7.201722544670979e-03, -1.414153052696733e-02, -1.408913666385222e-02, -6.563246312154794e-03, -8.534139381811063e-03, -1.631596004585144e-03, -2.548439931435641e-03, 7.596097088449822e-04, 4.448649601069261e-04, 4.751880059102739e-04}
		1-1
			{-5.498749783597176e-03, -2.450659458422140e-02, -1.481699219563338e-02, -1.864581978493833e-02, -1.451605562200750e-02, -1.063472884048062e-02, -6.625517022319202e-03, -3.152526059237363e-03, -7.334312480453249e-04, -7.428962854717359e-04}
			{-5.738459014696326e-03, -2.600804490725254e-02, -1.503212011988888e-02, -1.767848300460673e-02, -1.209942394651589e-02, -8.753638219831607e-03, -5.013772470314632e-03, -2.033096610848513e-03, -4.388565904361913e-04, -3.342464655309014e-04}
		1-2
			{3.171430898842060e-03, 3.013416682840661e-02, 6.611935522069952e-03, 2.231345914864451e-02, 5.703390479278972e-03, 6.738246461146538e-03, 1.900029633831418e-03, -1.865328452412561e-03, 1.190910079745415e-04, -1.194620303471505e-03}
			{2.182771844967719e-02, 4.799558339354890e-02, 3.668377519274244e-02, 4.035761112625326e-02, 2.664199458327547e-02, 2.444248320120728e-02, 1.288487402875228e-02, 1.024156758407125e-02, 3.789997483129528e-03, 2.156371253648029e-03}
		1-3
			{8.174641828116343e-03, 9.993413023529352e-03, 1.565587992831918e-02, 9.624030465823262e-03, 7.162079497999024e-03, 5.654699143060477e-03, 2.723426427691999e-03, 2.187676530259090e-03, 1.288193174908713e-03, 9.436845930526797e-04}
			{5.989412222092249e-03, -6.401462453670259e-03, 6.578030970953074e-03, -1.311348721825993e-03, 1.171482954640577e-03, 1.750280895402486e-03, 3.272398094203053e-04, 2.057244075284090e-03, 4.684165066502927e-04, 6.560792206488225e-04}
		1-4
			{1.349453786349683e-02, -1.443923446584006e-01, 3.333514629154925e-02, -9.596797059573420e-02, 2.679312726039376e-02, -5.134825951696795e-02, 1.255554597343211e-02, -2.049118705216923e-02, 2.284877462427147e-03, -5.236006298080059e-03}
			{9.779969439628240e-02, -2.808092031021137e-01, 1.623606976795928e-01, -2.092586646386192e-01, 9.585969103276698e-02, -1.115158678422282e-01, 3.818630606825833e-02, -3.831532160004202e-02, 8.452874566525980e-03, -7.027443702401438e-03}
		2-0
			{6.654308829770987e-03, -3.686256944759425e-02, 8.662654777479935e-03, -2.332029339382512e-02, 3.042958787117520e-03, -1.034824889160194e-02, -9.942185122263465e-04, -3.149959757072080e-03, -6.247046605719957e-04, -4.953143143088011e-04}
			{-1.304546613153079e-02, -3.064762384787019e-02, -2.191516420434169e-02, -1.829668225993185e-02, -1.047937288548014e-02, -1.024555717051811e-02, -3.458808693590626e-03, -4.716250392854521e-03, -1.017603037897163e-03, -1.412480972718049e-03}
		2-1
			{2.433555533182594e-02, -8.000345884845026e-03, 4.235431279681043e-02, 1.036779036554511e-02, 3.170825734503536e-02, 2.054437527158287e-02, 1.590887799062249e-02, 1.376474832308105e-02, 4.537893522845235e-03, 3.683554225498589e-03}
			{-2.328626938711345e-02, -2.187764869926554e-02, -3.853807219311525e-02, -6.272214030126191e-03, -1.765657456827530e-02, 1.449203518359442e-03, -4.590117195223902e-03, -5.412033035797336e-04, -1.522874606376352e-03, -4.265732516731096e-04}
		2-2
			{1.357677667441618e-02, -2.085025569779969e-02, 2.022580886355671e-02, -1.423688997617521e-02, 1.104490490009073e-02, -7.190301822029997e-03, 3.894566197092359e-03, -2.275769683227157e-03, 1.207609279859740e-03, -4.061733012319529e-04}
			{7.809150932205329e-03, -5.065573925403535e-03, 7.795730860244852e-03, -5.375447701546895e-03, 3.030839028868013e-03, -4.068054080897986e-03, 1.399762500687126e-03, -6.377309821083627e-04, 1.188344424109592e-03, 2.423982298184240e-04}
		2-3
			{3.192234535441828e-03, 2.854075209321617e-02, 2.057832741208687e-03, 2.842198777760385e-02, 1.258453438949657e-03, 2.171499651038556e-02, -4.661676148078120e-05, 1.094975313404271e-02, -2.918933357811483e-05, 3.381737153698244e-03}
			{-1.001440932830776e-02, -2.620402264956189e-02, -1.608660395799990e-02, -8.697838884147779e-03, -4.851567576366474e-03, 1.679188615932356e-03, 1.318987128637433e-03, 4.399728884913190e-03, 1.283561572046429e-03, 2.103145440866755e-03}
		2-4
			{4.653826634107485e-02, -4.503324544296958e-02, 7.506209920360395e-02, -3.386890820453571e-02, 4.026305118478142e-02, -2.022041031800554e-02, 1.199356313716540e-02, -8.808222845601626e-03, 9.249488027456809e-04, -1.505936650032780e-03}
			{2.286514715549107e-02, -7.332019960552538e-02, 3.874557181236363e-02, -4.936442650690282e-02, 2.760068786195474e-02, -2.148387354177611e-02, 1.572954263622550e-02, -5.065399663825172e-03, 3.605168733274124e-03, -2.032231886632950e-03}
		3-0
			{-2.791009891088287e-02, -9.182156455121644e-02, -5.621708081119822e-02, -7.925059449190047e-02, -5.012036990604769e-02, -5.010357320389314e-02, -2.514850911189657e-02, -2.218128272839598e-02, -6.802930767844665e-03, -4.679824221862803e-03}
			{8.873306012807522e-03, 1.930138955239477e-03, 9.650697153176386e-03, -2.631033689449749e-03, 9.463243997274414e-04, -4.208254432106331e-03, -1.182970446611639e-03, -3.021924442353886e-03, -9.152375204755575e-04, -1.181436196128940e-03}
		3-1
			{3.380655567243867e-02, 3.026019505096679e-02, 4.366080853458165e-02, 2.108740074545446e-02, 1.729092523142050e-02, 1.858384714358730e-02, 1.070441383945458e-02, 1.075926385223822e-02, 3.585731051799358e-03, 2.023341797529169e-04}
			{-1.291258027874142e-02, -2.345296179808863e-02, -2.284222263104834e-02, -1.699884634398868e-02, -1.334378453510868e-02, -9.101813720823434e-03, -3.404201744337755e-03, -2.648312104385132e-03, 3.378672557710212e-04, -5.196886908405966e-04}
		3-2
			{1.104335373041381e-01, -4.406305152710831e-01, 1.879848303229019e-01, -3.366254042361139e-01, 1.159603503476065e-01, -1.932126319778417e-01, 5.322103938240132e-02, -7.377280208463141e-02, 1.461274147060197e-02, -1.799762406646025e-02}
			{1.912958092961441e-02, -7.157612403621452e-02, 2.871148811120857e-02, -5.752835453679774e-02, 1.334713732512125e-02, -3.511543940805437e-02, 3.315799655675853e-03, -1.505917368290619e-02, -9.258976219985303e-05, -3.671352224241167e-03}
		3-3
			{2.796191321811376e-03, 6.965345142282364e-03, -2.097857005979507e-03, -3.037934663792324e-03, -7.679808627815999e-03, -4.995585796742113e-03, -2.051784533109172e-03, -4.014491580699274e-03, 2.105335365772428e-05, -1.135612350192010e-03}
			{-8.683681366231865e-03, -2.248605369001878e-02, -1.768468238591158e-02, -1.673662492254326e-02, -1.363094565002696e-02, -9.432647588820016e-03, -6.651381568967316e-03, -4.075890387864197e-03, -1.723626237503343e-03, -8.465184714345106e-04}
		3-4
			{6.338422375570689e-02, 3.487184885668386e-02, 9.915249875248451e-02, 2.433289876663577e-02, 5.683203288390547e-02, 1.529668538755391e-02, 2.291369630405420e-02, 6.039721492945461e-03, 6.878742358896088e-03, 1.123123629935777e-03}
			{7.184308733100382e-02, -1.096815199934514e-01, 1.183756716418216e-01, -8.387928627633873e-02, 6.755033765812540e-02, -4.729234632829236e-02, 2.522141163779749e-02, -1.804073695501499e-02, 4.616735048377427e-03, -4.087328421930290e-03}
		4-0
			{-6.261549178900767e-03, 3.199882186255833e-02, -1.466229736958670e-02, 1.922164669246123e-02, -1.160800059000201e-02, 6.283888818031062e-03, -5.942399284299417e-03, 1.334065774760166e-03, -1.644950260007891e-03, 2.374525879778467e-04}
			{-5.451255420966384e-03, -1.670287490493934e-02, -4.521206849902403e-04, -5.082982773374908e-03, 9.489800370054677e-03, 9.068398004308009e-03, 1.114924355373897e-02, 7.323369667194143e-03, 4.575024254737113e-03, 2.072862880703617e-03}
		4-1
			{-5.668361648782315e-02, 1.280447864988090e-01, -9.531049654303933e-02, 9.632617009322250e-02, -5.459258942794472e-02, 4.989420843337908e-02, -2.157323766813503e-02, 1.654486595035193e-02, -4.737074863540957e-03, 3.001176006010998e-03}
			{2.344889884824655e-02, -1.497164739262608e-01, 5.425994532411019e-02, -1.037789879722082e-01, 3.878002094380886e-02, -5.581264137623506e-02, 2.001302118418470e-02, -2.241490459016013e-02, 3.809071894385567e-03, -6.671494027356389e-03}
		4-2
			{-4.222343253334136e-02, 1.180152624292961e-01, -7.398302247697693e-02, 8.563470063410469e-02, -4.641766880775233e-02, 4.304277111630978e-02, -2.025143671068819e-02, 1.478981258640288e-02, -4.561441573308179e-03, 3.423953716477020e-03}
			{1.406732715242834e-01, -3.105271516032715e-01, 2.418492623847502e-01, -2.381449089735700e-01, 1.469192447554592e-01, -1.316196828752175e-01, 6.008065546851226e-02, -5.173008685390196e-02, 1.239127385047203e-02, -1.174489834147682e-02}
		4-3
			{-1.652012357384645e-02, 5.450006423848790e-02, -3.168524445317078e-02, 3.867304581780938e-02, -2.155718311613535e-02, 1.904798899120798e-02, -9.898252252649153e-03, 6.924826699933107e-03, -2.339342590976905e-03, 1.553978323080007e-03}
			{4.407217948716734e-02, -1.610578684507364e-01, 8.839492399678971e-02, -1.124574927421991e-01, 6.796972228517009e-02, -5.621909883665686e-02, 3.428009647605292e-02, -2.106816756166311e-02, 8.554203543644376e-03, -5.220137641220196e-03}
		4-4
			{-4.024521316576098e-02, 8.695107295272420e-02, -7.156736981037611e-02, 6.316562618494194e-02, -4.359494806321478e-02, 3.291917198994941e-02, -1.772801326278561e-02, 1.184918939779163e-02, -3.748435380182125e-03, 2.434271571499004e-03}
			{1.595193615313736e-01, -3.325731914331542e-01, 2.854292292134491e-01, -2.454763129431483e-01, 1.761721285979723e-01, -1.318877165611128e-01, 7.357352050298802e-02, -4.862312959449041e-02, 1.605742151397197e-02, -1.037555498107539e-02}
alpha_moments_count = 18
alpha_index_basic_count = 11
alpha_index_basic = {{0, 0, 0, 0}, {0, 1, 0, 0}, {0, 0, 1, 0}, {0, 0, 0, 1}, {0, 2, 0, 0}, {0, 1, 1, 0}, {0, 1, 0, 1}, {0, 0, 2, 0}, {0, 0, 1, 1}, {0, 0, 0, 2}, {1, 0, 0, 0}}
alpha_index_times_count = 14
alpha_index_times = {{0, 0, 1, 11}, {1, 1, 1, 12}, {2, 2, 1, 12}, {3, 3, 1, 12}, {4, 4, 1, 13}, {5, 5, 2, 13}, {6, 6, 2, 13}, {7, 7, 1, 13}, {8, 8, 2, 13}, {9, 9, 1, 13}, {0, 10, 1, 14}, {0, 11, 1, 15}, {0, 12, 1, 16}, {0, 15, 1, 17}}
alpha_scalar_moments = 9
alpha_moment_mapping = {0, 10, 11, 12, 13, 14, 15, 16, 17}
species_coeffs = {-1.025879262751846e+01, -2.293961488977895e+01, -1.054579403342586e+01, 1.156270091505221e+01, -1.232714356464830e+00}
moment_coeffs = {-1.649387283206157e+00, -1.915184769864797e+01, -2.961875133186171e+01, 4.227887688533531e-01, 1.990295483638985e+01, 9.442895313237774e+01, 2.086430366127981e+01, 4.099241198840107e+01, 4.719563880639558e+00}