MTP
version = 1.1.0
potential_name = MTP1m
scaling = 2.262109090909096e+00
species_count = 5
potential_tag = 
radial_basis_type = RBChebyshev
	min_dist = 1.492520000000000e+00
	max_dist = 5.000000000000000e+00
	radial_basis_size = 10
	radial_funcs_count = 2
	radial_coeffs
		0-0
			{3.018988993960102e-03, -1.255221652190650e-02, 2.410922885241467e-02, -5.038849585269759e-03, 2.478705059257124e-02, 7.850535387568348e-03, 1.624563916515622e-02, 1.013205107509654e-02, 6.861078281905445e-03, 4.782881532272110e-03}
			{-4.351247401833869e-03, 3.645864889808255e-03, -5.351286066520682e-03, 4.337347458481969e-03, -2.533201699884143e-03, 2.917689977679499e-03, -4.177150468282822e-04, 1.578336106510778e-03, 1.349712797168336e-04, 5.620834647678520e-04}
		0-1
			{-1.620810853305845e-03, 6.608048658439777e-02, 2.285132674992929e-02, 5.436578243636648e-02, 3.529338677524711e-02, 3.961841327986424e-02, 2.405636041421724e-02, 1.976350764063126e-02, 8.556065494569897e-03, 5.329705324659423e-03}
			{2.527730942069887e-02, 1.090787092710088e-01, 3.940430452317584e-02, 7.604549697171201e-02, 1.292600810014256e-02, 3.678596551793307e-02, 7.581942835933818e-04, 1.146444878787566e-02, -1.535960696074560e-03, 3.138592355525802e-03}
		0-2
			{5.418039590409401e-02, -5.166075639455873e-02, 1.068743426996464e-01, -3.959793660901171e-02, 7.629970833280025e-02, -1.607656297516069e-02, 3.864190966910878e-02, -1.291867903400600e-03, 1.265541708563097e-02, 1.092221177274753e-03}
			{-1.445535664507081e-02, 1.873642898946096e-02, -1.867294498010021e-02, 8.678913796246501e-03, -1.169582652691510e-02, -5.108000539268372e-03, -4.676089485381831e-03, -9.561677399571339e-03, -1.999060276836209e-03, -3.739902947009846e-03}
		0-3
			{1.883595671650425e-02, 7.502544044676490e-02, 5.564010878199074e-02, 6.493311291566006e-02, 5.242126310259231e-02, 5.254994336184825e-02, 2.940909974144322e-02, 2.735009286485644e-02, 8.587555429846494e-03, 8.243135530122223e-03}
			{-4.324864135615514e-02, 8.361818499678413e-02, -7.452105901020288e-02, 5.994154183903734e-02, -4.963168645213994e-02, 3.042817362530295e-02, -2.231007104394228e-02, 1.037375713105457e-02, -5.769197263654809e-03, 2.375220382491960e-03}
		0-4
			{6.093611400639856e-03, -1.055575745858968e-01, 2.379816297689581e-02, -8.134272921061998e-02, 1.639174338690726e-02, -4.489390131615936e-02, 1.108284422820869e-02, -1.426063805705630e-02, 3.343606827027893e-03, -2.658150469412967e-03}
			{2.156070954144293e-02, -2.277258771817315e-01, 3.571471055344210e-02, -1.634068963133576e-01, 2.386233011530699e-02, -7.759046787332639e-02, 8.208990797329630e-03, -2.209365920796728e-02, 3.518396368818551e-03, 6.792849835747563e-04}
		1-0
			{1.457332974399413e-02, -6.748889730048278e-03, 5.552450901988418e-03, 2.448892210941476e-03, 4.134223204910099e-03, 2.243016461007960e-03, 1.148281556130013e-03, 2.048469503507204e-03, 1.369416910488232e-03, 9.125839064397801e-04}
			{-3.133366247833230e-02, -1.805964877136061e-01, -6.025739553159024e-02, -1.134508164228112e-01, -1.773018895095793e-02, -5.170353927792667e-02, 3.699839822050596e-04, -1.324901021333126e-02, 4.049441942447176e-03, -3.062330295524855e-03}
		1-1
			{-2.426916669134930e-03, -5.259693467520440e-02, -2.999450982552328e-02, -3.355122159885083e-02, -2.375681278872200e-02, -1.677899729828346e-02, -9.365365471363629e-03, -3.614049780509313e-03, -9.277158519405744e-04, -1.098046145126892e-03}
			{-2.201305520279330e-03, -5.236710558045432e-02, -2.575476540837696e-02, -3.039654328469521e-02, -2.082161905905386e-02, -1.450315290718948e-02, -8.104085295451724e-03, -2.639148717166859e-03, -8.184544830766784e-04, -8.206597456475792e-04}
		1-2
			{2.460736001704472e-03, 4.170903212148495e-02, -1.423421154149562e-02, 3.895042459247983e-02, -1.106601340377657e-02, 2.464655704861659e-02, -7.511567897074741e-03, 9.692954954911057e-03, -2.645351205069003e-03, 1.985817470951134e-03}
			{-1.100005965588194e-02, 5.568792577130282e-02, -1.725898210458527e-02, 5.467253843044545e-02, 7.480175176060170e-03, 2.900745606764532e-02, 1.029087104771098e-02, 7.978348861182425e-03, 2.544987762106289e-03, -2.345429307511795e-03}
		1-3
			{-1.465764726363270e-02, -9.593703774503547e-02, -5.376737272948065e-02, -6.637030815760220e-02, -4.144116439748791e-02, -3.367097723970875e-02, -1.928681317480142e-02, -9.039443449734648e-03, -4.407942446878118e-03, -8.238277807387383e-04}
			{2.172593569064782e-02, -6.228989972914761e-02, 1.621413794781438e-02, -3.492729953739295e-02, 3.012820054694554e-03, -2.186341927006697e-02, -2.719523038209322e-03, -1.111181839191471e-02, -1.521209815127648e-03, -2.400149257148671e-03}
		1-4
			{-8.960990628342289e-02, 1.759534760138513e-01, -1.744339514461956e-01, 1.338239777937961e-01, -1.118714030306226e-01, 7.059071431230210e-02, -5.441498598930523e-02, 1.970993627699297e-02, -1.540076180708860e-02, 3.898561616144993e-03}
			{5.067231371936064e-02, -3.674889468138599e-01, 8.808475451153198e-02, -2.570751969275303e-01, 6.379309277469854e-02, -1.417878204884368e-01, 1.821320119979927e-02, -5.996728469974346e-02, 7.714803169967403e-04, -1.306040603637211e-02}
		2-0
			{6.230110479198397e-02, -1.049917492389045e-03, 8.484348582791937e-02, -1.482982685783280e-02, 4.126997720020332e-02, -2.391129260437700e-02, 1.021595889782008e-02, -1.673339706485085e-02, 2.326738291369986e-03, -4.622735252857564e-03}
			{6.374935326063229e-02, -1.413026396748468e-02, 8.620506196852809e-02, -1.285298460967192e-02, 4.595879689048900e-02, -6.778529169309658e-03, 1.461546350525803e-02, 2.247325854036245e-03, 5.241867858167934e-03, 2.353540137207975e-03}
		2-1
			{2.191721280308143e-02, 3.616466057304874e-02, 1.174746446546446e-02, 2.212943212495247e-02, -7.132884242064143e-03, 3.938840730914711e-03, -9.613403566895943e-03, -8.364036544398039e-04, -3.555141977481003e-03, -2.845368910549686e-04}
			{2.644511785809033e-02, 1.135470571768409e-02, 9.883462773758048e-03, 1.530632324188712e-03, -2.474987975077303e-02, -2.808789617380735e-03, -2.411300888062766e-02, 5.014295639998006e-04, -7.399172330247091e-03, 3.981831806291906e-03}
		2-2
			{-2.775116742652206e-02, 1.443685544467891e-01, -6.880057211589667e-02, 1.028965721231337e-01, -5.471277561062184e-02, 5.228333213229380e-02, -3.022272485743087e-02, 1.706320224170876e-02, -8.918409206184870e-03, 3.309995207957444e-03}
			{-2.434447455791898e-02, 1.224757734845332e-01, -5.794030121209529e-02, 8.738796628344778e-02, -4.597398911188103e-02, 4.383536172552471e-02, -2.498204123676492e-02, 1.432425206746874e-02, -7.319442734482092e-03, 2.935688541811922e-03}
		2-3
			{-1.867332776801892e-04, 8.425299650665612e-02, -2.480244831860109e-02, 5.755320260472226e-02, -3.190401488961045e-02, 2.236136337959978e-02, -1.843761480684588e-02, 6.020617612974601e-03, -5.565161976560749e-03, 4.711046071896610e-04}
			{9.144752171039158e-03, 4.895369827545538e-02, -1.823120863647146e-02, 3.725844487709269e-02, -2.972225123788788e-02, 2.052457613871007e-02, -2.398830203915946e-02, 4.465738716897223e-03, -8.961338971266374e-03, 3.242807917549810e-03}
		2-4
			{6.881216639963478e-02, -2.261490158039009e-02, 9.795175777357623e-02, -1.639896005571327e-02, 5.160251461750405e-02, -4.080706362193542e-03, 1.412560111515329e-02, 1.938855133747298e-03, 3.379772730910742e-03, 2.823899241217619e-03}
			{3.935947118340054e-02, -1.748534216483059e-01, 6.475050734446317e-02, -1.201487032980117e-01, 4.534966946954776e-02, -6.288736829039460e-02, 2.318439682428190e-02, -2.031983379732081e-02, 6.793708573461650e-03, -5.887349048924371e-03}
		3-0
			{-1.689026480648688e-02, -1.942033656228249e-02, -5.120277613618034e-02, -4.732807576893166e-03, -3.014216473752123e-02, 3.257030504839839e-03, -1.456939025595473e-02, 3.289950636543880e-03, -3.797366276695728e-03, 2.101900053846243e-03}
			{3.753812404608547e-02, -1.211173988683239e-01, 4.925232603807186e-02, -7.155327818154393e-02, 3.887154795536866e-02, -2.836879696709914e-02, 1.815718383188286e-02, -5.950763568110870e-03, 5.095128380901081e-03, 1.160387614251408e-05}
		3-1
			{5.612417803192720e-03, -2.729124316524949e-02, -1.353982202753819e-02, -1.405126111050662e-02, -9.916710224816272e-03, -4.263688987533582e-03, -2.610948400482840e-03, -1.150602255208618e-03, -1.394021963351329e-03, -1.065088602558706e-03}
			{-2.514901636182756e-02, -6.830173875214036e-02, -6.534394007503726e-02, -4.566986128656259e-02, -4.161379569443918e-02, -1.591873776680658e-02, -1.359706049996679e-02, 1.196401699326751e-03, -2.745490162736665e-03, 6.481735522190033e-04}
		3-2
			{-3.995630842072793e-02, -3.863900065091485e-02, -8.329834343748817e-02, -2.449848844728107e-02, -4.747155915460642e-02, -1.585596057689594e-02, -2.219238462350819e-02, -9.599127141373301e-03, -6.359373205873765e-03, -2.002441921879994e-03}
			{-5.692958389719338e-02, -3.669244669900464e-03, -9.231473004635760e-02, -2.407526345870791e-04, -4.846372989179960e-02, -1.028010783659151e-02, -1.365953948998838e-02, -5.131335935733182e-03, -1.509776037842991e-03, -3.969375034842174e-03}
		3-3
			{-1.488598730050869e-02, -7.738072336584499e-02, -5.314287898948872e-02, -5.485996665599092e-02, -3.812251476227823e-02, -2.891612134062785e-02, -1.722588679786967e-02, -8.103068907934358e-03, -3.119113242161330e-03, -1.064129258329071e-03}
			{-1.202741992026377e-02, -7.280179752067685e-02, -4.402170473093492e-02, -4.901734624443213e-02, -3.146021446247164e-02, -2.566130037510237e-02, -1.405148484868640e-02, -6.748036022605480e-03, -2.381198481927737e-03, -8.545976604443375e-04}
		3-4
			{-5.018936240530808e-02, 2.750693700692561e-02, -9.832067051730892e-02, 3.627780201971741e-02, -4.820377540927398e-02, 2.966506248243934e-02, -1.729176768896263e-02, 1.253772459715296e-02, -2.400212012384988e-03, 4.402456510160333e-03}
			{-3.877880692543147e-02, 5.379635894256570e-02, -5.810426729247194e-02, 6.230894092353013e-02, -1.734829824603342e-02, 4.616198439199024e-02, 3.091870189961558e-03, 2.200740005925873e-02, 3.532166663469052e-03, 5.178105132265125e-03}
		4-0
			{-4.063531037511912e-02, 6.100068272154439e-02, -4.222699892811461e-02, 5.259221586560577e-02, -1.646546978432856e-02, 3.031945755279699e-02, -6.077941664654135e-03, 5.428008193309308e-03, -1.802925419950681e-03, 3.570109659429304e-04}
			{-2.949538695342498e-02, 2.208418409067553e-01, -4.732616332543448e-02, 1.588891085085234e-01, -3.002502140107791e-02, 7.442700833252855e-02, -9.916651898765861e-03, 2.144741196963540e-02, -3.605524708158545e-03, -2.889157569098010e-04}
		4-1
			{2.056731043775913e-02, -2.133412838895636e-01, 6.900383688658727e-02, -1.506899521563909e-01, 5.321056501943421e-02, -7.897625668576221e-02, 2.315712675922339e-02, -3.221105051717291e-02, 5.095843378916818e-03, -5.431221038617862e-03}
			{-8.997298351261553e-02, 3.421840534375352e-01, -1.647823638590013e-01, 2.469117222687833e-01, -1.090323821355150e-01, 1.331851276175328e-01, -4.369427198688422e-02, 5.053893772792636e-02, -9.310806435075550e-03, 1.082421553586000e-02}
		4-2
			{-9.736854167437535e-02, 1.735320657445416e-01, -1.436697168904019e-01, 1.292419588600799e-01, -8.251310051804146e-02, 7.038813417791240e-02, -2.963524015586427e-02, 2.383662714327935e-02, -4.745735074540679e-03, 4.875765542264407e-03}
			{-1.057593326548290e-03, 1.280060150506908e-01, -9.464648546196833e-03, 8.863101586709145e-02, -1.315192063938489e-02, 4.726514852109534e-02, -1.148830725737846e-02, 1.701712560695728e-02, -3.349825033027537e-03, 5.923766288012455e-03}
		4-3
			{7.178899488846064e-03, -8.591105048295959e-02, 5.631006894181068e-02, -3.934721519353721e-02, 5.531125324011642e-02, -2.798765627021274e-03, 3.413807179709027e-02, 5.667229221383891e-03, 9.377247404229093e-03, 3.485242512098030e-03}
			{-1.418466005931006e-02, -4.477264965326912e-03, -3.481751605543951e-02, -8.494545316131813e-03, -2.598576903989310e-02, -8.949848672489703e-03, -1.538734056929651e-02, -5.997637110641896e-03, -4.375243218036087e-03, -8.164503415552906e-04}
		4-4
			{-1.879633253826380e-01, 3.962503048694776e-01, -2.941841735018093e-01, 3.015097419755147e-01, -1.723851216575786e-01, 1.632887455350827e-01, -6.424797490097767e-02, 5.798603707175629e-02, -1.260448470478678e-02, 1.117273154577687e-02}
			{-9.234196935070873e-03, 2.008268148338840e-02, -1.556435732807233e-02, 1.406540643495180e-02, -9.067735481158499e-03, 6.266127875502181e-03, -3.361349735814933e-03, 1.873102994525163e-03, -6.773260297357126e-04, 3.192041977432643e-04}
alpha_moments_count = 18
alpha_index_basic_count = 11
alpha_index_basic = {{0, 0, 0, 0}, {0, 1, 0, 0}, {0, 0, 1, 0}, {0, 0, 0, 1}, {0, 2, 0, 0}, {0, 1, 1, 0}, {0, 1, 0, 1}, {0, 0, 2, 0}, {0, 0, 1, 1}, {0, 0, 0, 2}, {1, 0, 0, 0}}
alpha_index_times_count = 14
alpha_index_times = {{0, 0, 1, 11}, {1, 1, 1, 12}, {2, 2, 1, 12}, {3, 3, 1, 12}, {4, 4, 1, 13}, {5, 5, 2, 13}, {6, 6, 2, 13}, {7, 7, 1, 13}, {8, 8, 2, 13}, {9, 9, 1, 13}, {0, 10, 1, 14}, {0, 11, 1, 15}, {0, 12, 1, 16}, {0, 15, 1, 17}}
alpha_scalar_moments = 9
alpha_moment_mapping = {0, 10, 11, 12, 13, 14, 15, 16, 17}
species_coeffs = {-3.870245812011060e+00, -2.749754919615978e+00, -3.012272717802113e+00, -3.171312687295346e+00, 2.275646774139756e-01}
moment_coeffs = {3.571815143737843e+00, -9.499937180826887e+00, -3.463172224053692e-01, 1.332790652514177e+00, 2.555826428269163e+00, 7.604361366545775e-01, -5.562167001078467e-02, 1.256837291858129e-02, -5.140658133507132e-03}