MTP
version = 1.1.0
potential_name = MTP1m
scaling = 1.081893313298274e+00
species_count = 5
potential_tag = 
radial_basis_type = RBChebyshev
	min_dist = 1.492520000000000e+00
	max_dist = 5.000000000000000e+00
	radial_basis_size = 10
	radial_funcs_count = 2
	radial_coeffs
		0-0
			{-1.212031758449438e-01, -2.028046186789090e-01, -1.733792503001980e-01, -1.248790577936183e-01, -7.895342637109640e-02, -5.559738034176741e-02, -2.263119137064636e-02, -1.090465613127252e-02, -6.512915098446332e-03, -3.718800456046331e-03}
			{-4.332073613364974e-02, -6.787210510210767e-02, -6.365819311592651e-02, -4.233025104153824e-02, -3.052253597968828e-02, -1.992535038995453e-02, -9.289928765839832e-03, -4.357841111145525e-03, -2.646160426426887e-03, -1.326357728424068e-03}
		0-1
			{-2.212740622784466e-02, -1.418739765846366e-03, 8.754446155641301e-03, 3.071317169775570e-02, 4.021499868454469e-02, 2.560744600784987e-02, 2.558000081112743e-02, 1.567942119325164e-02, -2.547050497548377e-04, -1.168650422434900e-03}
			{-1.557030409191153e-02, -5.164969999396913e-03, -1.855711405830055e-02, -9.932272384584717e-03, -2.154458972896216e-02, -2.144904506610807e-02, -1.797874013709915e-02, -7.264994997068297e-03, -7.013151142798866e-03, 2.139507606525807e-03}
		0-2
			{-3.225459071968855e-03, -1.026279297792716e-02, 4.149860233753737e-02, 3.913319283847266e-02, 7.194402527813985e-02, 4.687805797062843e-02, 5.520208804997651e-02, 4.148799142356047e-02, 1.699874227539145e-02, 8.914505223838848e-03}
			{-7.864968414655298e-02, -1.990729261520702e-01, -1.171142754264347e-01, -1.301086799241113e-01, -8.105615462785562e-02, -7.009283376778840e-02, -4.093572914448331e-02, -2.742633434392183e-02, -1.511392734676436e-02, -4.046423600154760e-03}
		0-3
			{4.414161162430765e-02, 8.189381957576218e-02, 1.253362945047767e-01, 1.114627347903779e-01, 1.279851071716457e-01, 8.935784597498996e-02, 6.839654717852979e-02, 4.842790344986148e-02, 1.617114228117427e-02, 8.314923174218919e-03}
			{-1.095955582393111e-01, -5.194591707363772e-02, -1.750558422160314e-01, -2.724753946410670e-02, -9.905264816509537e-02, -1.041839151509515e-03, -3.394204312998952e-02, 1.547779904879037e-02, -5.019501452646037e-03, 9.316358410602502e-03}
		0-4
			{-1.688305720481509e-01, -3.246078134931379e-01, -2.503095717482408e-01, -2.030172488682126e-01, -1.276102241240338e-01, -9.886218071748940e-02, -4.017861342980720e-02, -2.202249706123976e-02, -1.112042437149017e-02, -5.136531378049448e-03}
			{-1.460483798606925e-01, -2.075436641053990e-01, -2.364627815635779e-01, -1.404632819277324e-01, -1.407151410392798e-01, -6.492368636539661e-02, -4.698688981296871e-02, -6.328753766215844e-03, -3.514828442868066e-03, 5.548028041117433e-03}
		1-0
			{6.271798901643536e-03, -7.156608017812807e-02, -2.737349355107244e-02, -4.251812184590254e-02, -3.909554378339060e-02, -3.302712729445421e-02, -3.056384011622476e-02, -1.463014422447929e-02, -9.048138853942952e-03, -2.611802535843974e-03}
			{8.014320900634406e-03, -4.712203559317871e-02, -5.306323994050045e-04, -6.204557515667216e-03, 1.276196761453941e-02, 1.468936492869403e-02, 1.234079724940052e-02, 6.463835189128506e-03, 2.683429304459795e-03, -4.767660645590500e-03}
		1-1
			{4.870324867248822e-02, 9.625532500494896e-03, 4.579205335357076e-02, 2.427168244037230e-02, 2.309851962332098e-02, 1.842936628457215e-02, 1.089391558539543e-02, 9.485395965875255e-03, 4.749521928437891e-03, 5.684366593270020e-04}
			{2.773262113364949e-02, -1.805060964032723e-03, 2.475395768003787e-02, 1.006007416187264e-02, 1.137951639922296e-02, 8.559543034727090e-03, 5.260462657714844e-03, 5.042122769409229e-03, 2.295196459830177e-03, 2.055287641901065e-04}
		1-2
			{7.553559686052684e-02, 6.198221686903312e-02, 9.710523030316673e-02, 5.462568334689367e-02, 4.648806613041916e-02, 2.649375451208047e-02, 9.686899914498469e-03, 5.761206562500309e-03, -4.817214845621617e-04, -1.711067284857088e-03}
			{5.648462424523290e-02, 8.540308786109163e-02, 1.129001456695613e-01, 1.129461504141888e-01, 1.036635054674582e-01, 8.006276103218804e-02, 5.760621017664771e-02, 3.337675103380994e-02, 1.586576920763818e-02, 2.683790987861024e-03}
		1-3
			{-1.018909518052951e-02, -1.210797242556528e-01, -6.303053897663652e-02, -7.599701159557622e-02, -5.481108457669420e-02, -3.916560349803181e-02, -2.737607307104166e-02, -1.122291356174392e-02, -5.135682886367661e-03, -1.447189821906739e-03}
			{4.403179965526650e-02, 9.298687528303999e-03, 5.381414925974651e-02, 2.220741684269942e-02, 2.472398025050922e-02, 1.980997487864668e-02, 1.162837588802035e-02, 5.925477601239072e-03, 2.299064749387194e-03, 4.270980873874224e-03}
		1-4
			{7.779030411047994e-02, 6.357202920958334e-02, 9.343520617623238e-02, 3.649636162627169e-02, 3.322208347474541e-02, 2.598591628581434e-04, -9.861735538205864e-03, -1.256695615005646e-02, -8.241508652631959e-03, -1.767446859045844e-03}
			{-1.139701674195510e-01, -2.512101202043449e-01, -1.828602428560739e-01, -1.315999155643217e-01, -8.265118430453022e-02, -3.024625941122485e-02, -1.029111162819854e-02, 5.481759887456385e-03, 2.719100583278099e-03, -2.703904030148696e-03}
		2-0
			{1.971127902163332e-03, -1.313834109376844e-01, -4.173992301173064e-02, -9.432962227081577e-02, -6.972737435184137e-02, -6.942996796570172e-02, -5.748620660786657e-02, -3.496252093819022e-02, -2.225364731782159e-02, -8.806245347880623e-03}
			{1.099858781344165e-01, 1.450436944599232e-01, 1.534726647028450e-01, 1.077326316645979e-01, 9.511958646908399e-02, 5.693972109108177e-02, 4.009378923391699e-02, 2.830385484940809e-02, 1.200509662297856e-02, 3.664211396753312e-03}
		2-1
			{-2.334898966783964e-03, -4.319592774620595e-02, -4.389932088473313e-02, -2.787543646575488e-02, -3.783583472811720e-02, -2.649374738013033e-02, -2.264643724674420e-02, -1.693186978392760e-02, -8.296465304488777e-03, -5.603534435017453e-03}
			{-1.712532369256657e-02, -7.902304056250539e-02, -9.186695619543024e-02, -1.019600944215183e-01, -1.063926152169815e-01, -8.527792099516496e-02, -6.834144856591827e-02, -4.200689870852510e-02, -2.190542760622742e-02, -7.111354163482660e-03}
		2-2
			{6.789246542449562e-02, 2.210109133685557e-02, 6.885953588160056e-02, 6.057714059135095e-03, 1.971564399764821e-02, -1.446573756807159e-02, -1.025866065650427e-02, -1.681668599956685e-02, -9.375884003782864e-03, -6.970112813479929e-03}
			{4.773899585281857e-02, 1.090281060333238e-02, 4.998930534862525e-02, -8.354125546948032e-04, 1.585928602415204e-02, -1.399463653664533e-02, -5.196589915591526e-03, -1.291795825406629e-02, -5.710284473862786e-03, -4.850124933753201e-03}
		2-3
			{7.308540780356450e-02, 6.262580211934510e-02, 9.329793463596754e-02, 6.092413417490875e-02, 4.867199230750846e-02, 2.589020005880607e-02, 1.648873934649969e-02, 7.039549112862469e-03, -5.381323456172436e-04, -9.779243321683731e-04}
			{3.698450581576752e-02, 3.842127051660389e-02, 1.331536881086845e-02, 2.002984119948440e-02, -3.228281491866013e-02, -1.923600963741243e-02, -4.924728867078617e-02, -1.845993115862682e-02, -1.839332166129413e-02, 1.380178586448145e-03}
		2-4
			{5.313866537354558e-02, 2.250060864909154e-02, 4.147344090817816e-02, 5.551954955471344e-05, 4.346991794262357e-03, -1.444251678625130e-02, -1.066426055756635e-02, -5.463770539136501e-03, -3.137563359460523e-03, -9.753962032282851e-04}
			{5.350707751661973e-02, 3.108693930584416e-02, 4.152939039181936e-02, 3.629590690475209e-02, 3.302336109420507e-02, 2.894880307681973e-02, 3.639344123761937e-03, 7.505546990837282e-03, 4.785214729237339e-03, 3.433111177351259e-03}
		3-0
			{-5.530941967674664e-02, -1.329091572163344e-01, -1.429416222453367e-01, -8.950117419248484e-02, -1.080829039719747e-01, -5.533366909444570e-02, -6.391050647757054e-02, -2.365783477034104e-02, -1.661014473024195e-02, -2.921099792915725e-03}
			{1.203103961241641e-01, 2.585193631351655e-02, 1.771432600105895e-01, 3.239209950842496e-02, 1.049960518118618e-01, 7.499199027939395e-03, 2.883435568393707e-02, -1.246845954643356e-02, 1.840851893353864e-03, -9.882345490152572e-03}
		3-1
			{4.488316927511447e-02, 2.890796408033893e-02, 3.624485198653331e-02, 3.537712974607957e-02, 2.541684412762151e-02, 2.834782626319039e-02, 1.357125026358926e-02, 1.003576360446043e-02, 4.590942712271700e-03, -1.912632676692661e-03}
			{-2.464334698060105e-02, -7.838797172879561e-02, -7.155025872213243e-02, -5.196555514564873e-02, -4.337560683151912e-02, -2.786218952988604e-02, -2.062877311396236e-02, -5.906271663048069e-03, -2.974400636512712e-03, -6.057528130857905e-03}
		3-2
			{1.161397163000125e-02, -2.651424166897546e-02, -1.175101736021731e-02, -3.827620327304621e-03, -9.023377096055586e-04, -3.722563952049527e-03, -9.048896585487345e-03, -5.908313055703028e-03, 2.024049304374170e-03, -1.671815381007094e-03}
			{1.111921614494020e-02, -2.087517276949720e-02, 2.920731327232789e-02, 1.206206612137174e-02, 5.607400523488384e-02, 2.893773314628876e-02, 5.184394217488156e-02, 1.795194835081097e-02, 1.849833382881455e-02, -3.083025262871441e-03}
		3-3
			{2.387162426971206e-02, -3.171205875405281e-02, -6.340956116017893e-03, -1.604541542647820e-02, -8.974579159652264e-03, -3.275401207679135e-03, -2.025058702538788e-03, 4.041872801619080e-03, 5.809804388595813e-03, 1.172065502717813e-03}
			{1.323744453594955e-02, -2.542847100721739e-02, -7.736233489093853e-03, -1.394557232804036e-02, -8.214904409203600e-03, -4.868236503710746e-03, -2.901548404138469e-03, 1.495605410136031e-03, 2.905762687350906e-03, 3.862775431214029e-04}
		3-4
			{3.965156232137166e-02, 1.219481820414202e-03, 2.109391544410742e-02, -5.381585960843553e-04, -1.039481518301187e-03, -1.034430115405821e-02, -1.832041480244306e-02, -1.162850060886768e-02, -6.590872293783696e-03, -1.862820174092123e-03}
			{8.379782113033453e-02, 1.509398452881135e-01, 1.317656923366900e-01, 1.199964253580501e-01, 8.383935690605725e-02, 7.126398163716653e-02, 5.092987446110575e-02, 2.698951080109668e-02, 1.402968744358126e-02, -3.397684131237872e-03}
		4-0
			{-4.448108453788182e-02, -5.431425432940321e-02, -4.583868444245395e-02, -4.883962166888278e-02, -4.116107596478279e-02, -2.317399107032756e-02, -2.281473666568007e-02, -9.401110395692016e-03, -5.083822665295070e-03, 2.854937876127235e-03}
			{6.822163341427544e-02, 8.953851811983904e-02, 1.226044766329089e-01, 6.138876210672624e-02, 7.692988485753101e-02, 2.467304890347652e-02, 2.443703344045760e-02, -3.434781294936379e-03, -1.719077058314011e-03, -5.894257140890845e-03}
		4-1
			{-9.271443318075577e-02, -1.434744971953803e-01, -1.178286496502021e-01, -1.014039400591359e-01, -8.330445013197471e-02, -4.402010527715670e-02, -2.676273953019520e-02, -1.129225703936236e-02, -5.179836344648479e-03, -3.709739558377593e-03}
			{9.312789578130184e-02, 1.810048285860933e-01, 1.422233629961573e-01, 8.824238719408446e-02, 5.363958653832852e-02, 9.302674967117314e-03, -2.704489660861999e-03, -1.320281612686218e-02, -6.588520829139284e-03, 2.246716119687299e-04}
		4-2
			{1.136450692878133e-01, 2.319153313684761e-01, 1.845704613758336e-01, 1.300595740369132e-01, 8.889760748959667e-02, 6.361471736457254e-02, 2.807172700489759e-02, 2.014730460047140e-02, 1.402428255655071e-02, 7.599080895318306e-03}
			{1.207741446850467e-02, 5.452420410992461e-02, 2.991862991570685e-02, 9.742620761664397e-03, -1.870648454536897e-03, -1.302243694497076e-02, -8.593094124623705e-04, -3.753895373318933e-03, -1.328646035847551e-03, -9.999292291682036e-04}
		4-3
			{3.996568934127239e-02, 1.172184760240824e-01, 9.340071590465447e-02, 6.855786786309132e-02, 3.430714480212745e-02, 3.378437344328057e-02, 2.102806793659433e-02, 1.022143999821820e-02, 6.445279525027319e-03, -1.033033156969887e-03}
			{-3.863169376704437e-02, -7.845191148541644e-02, -7.374614033107171e-02, -7.155446674516451e-02, -5.902173588601299e-02, -5.104389365193137e-02, -4.198267096813416e-02, -2.333073678779225e-02, -1.202248875507148e-02, 1.305843538196646e-03}
		4-4
			{2.959841316261137e-02, 9.366127409955957e-02, 8.723522559016698e-02, 6.456218249227481e-02, 5.462454617576285e-02, 4.203541133773061e-02, 2.666781363329288e-02, 1.744720008139276e-02, 9.186570206174069e-03, 7.950220874433353e-03}
			{6.472813827615378e-03, 3.303029752673248e-02, 1.897441665435693e-02, 2.116635119222405e-02, 1.223079773098226e-02, 1.134416138783749e-02, 6.418436487077446e-03, 4.385355236340651e-03, 2.270722017589838e-03, 1.979544516603407e-03}
alpha_moments_count = 18
alpha_index_basic_count = 11
alpha_index_basic = {{0, 0, 0, 0}, {0, 1, 0, 0}, {0, 0, 1, 0}, {0, 0, 0, 1}, {0, 2, 0, 0}, {0, 1, 1, 0}, {0, 1, 0, 1}, {0, 0, 2, 0}, {0, 0, 1, 1}, {0, 0, 0, 2}, {1, 0, 0, 0}}
alpha_index_times_count = 14
alpha_index_times = {{0, 0, 1, 11}, {1, 1, 1, 12}, {2, 2, 1, 12}, {3, 3, 1, 12}, {4, 4, 1, 13}, {5, 5, 2, 13}, {6, 6, 2, 13}, {7, 7, 1, 13}, {8, 8, 2, 13}, {9, 9, 1, 13}, {0, 10, 1, 14}, {0, 11, 1, 15}, {0, 12, 1, 16}, {0, 15, 1, 17}}
alpha_scalar_moments = 9
alpha_moment_mapping = {0, 10, 11, 12, 13, 14, 15, 16, 17}
species_coeffs = {-2.970325965479851e+00, -7.649741390021485e+00, -2.129424591277724e+00, -8.228917292828187e-01, -5.639851115698575e+00}
moment_coeffs = {4.657819168711786e+00, -1.201600201106710e+01, -7.209415173091681e-01, 4.605128301153810e-01, 2.022395551256700e+00, 8.180902287270394e-01, -3.310314156868004e-02, 2.921283826718124e-01, 1.735230913644184e-02}